# 10 10
-3.485493063926696777e-01 6.590944766998291016e+00 -4.608543813228607178e-01 -1.314447999000549316e+00 -2.216770797967910767e-01 -1.619192063808441162e-01 1.943263530731201172e+00 -4.098005294799804688e-01 -1.872430443763732910e-01 -4.950401186943054199e-01
2.732398271560668945e+00 8.409835696220397949e-01 2.802334070205688477e+00 4.076562523841857910e-01 2.627770185470581055e+00 2.816588640213012695e+00 1.410272836685180664e+00 2.697205305099487305e+00 2.734261989593505859e+00 2.797246694564819336e+00
-5.000415444374084473e-01 -2.424776554107666016e+00 -4.770058989524841309e-01 1.976619940251111984e-03 -4.064400196075439453e-01 -6.157320141792297363e-01 -1.304965853691101074e+00 -3.792158365249633789e-01 -5.107491612434387207e-01 -4.945939481258392334e-01
2.911330699920654297e+00 8.188839554786682129e-01 2.754541635513305664e+00 5.029713511466979980e-01 2.729985952377319336e+00 2.777801752090454102e+00 1.508640170097351074e+00 2.762510538101196289e+00 2.670656919479370117e+00 2.843690872192382812e+00
1.099982023239135742e+00 1.664287209510803223e+00 1.302118778228759766e+00 6.039308905601501465e-01 1.554824829101562500e+00 1.473410964012145996e+00 3.417798995971679688e+00 1.304537653923034668e+00 1.488681793212890625e+00 1.284767985343933105e+00
7.541813850402832031e-01 -1.494647383689880371e+00 8.584220409393310547e-01 1.896216988563537598e+00 1.162775993347167969e+00 9.666609168052673340e-01 1.490604877471923828e-02 6.737886667251586914e-01 1.191752910614013672e+00 7.877509593963623047e-01
1.461162805557250977e+00 4.357723712921142578e+00 1.537685990333557129e+00 3.156427741050720215e-01 1.271756172180175781e+00 1.447411775588989258e+00 -7.666503787040710449e-01 1.585800409317016602e+00 1.407088398933410645e+00 1.442875981330871582e+00
-3.019901812076568604e-01 -1.218819022178649902e+00 -3.519391119480133057e-01 5.736484050750732422e+00 -7.258541882038116455e-02 -2.219991087913513184e-01 2.426633387804031372e-01 -3.292010426521301270e-01 -1.262612193822860718e-01 -2.705176174640655518e-01
2.266958653926849365e-01 -1.652877569198608398e+00 9.015908837318420410e-02 -1.697677612304687500e+00 5.529511719942092896e-02 2.671881020069122314e-01 -1.040999412536621094e+00 2.013933360576629639e-01 3.041125535964965820e-01 2.569172978401184082e-01
-2.175970524549484253e-01 -1.659196734428405762e+00 -1.770849227905273438e-01 -1.874076128005981445e+00 -2.269012928009033203e-01 -2.788926064968109131e-01 -1.634773373603820801e+00 -2.981578707695007324e-01 -4.157447516918182373e-01 -2.891368865966796875e-01
